digraph Tree {
node [shape=box, fontname="helvetica"] ;
edge [fontname="helvetica"] ;
0 [label="yt <= 0.5\nentropy = 1.0\nsamples = 10\nvalue = [5, 5]"] ;
1 [label="entropy = 0.0\nsamples = 4\nvalue = [4, 0]"] ;
0 -> 1 [labeldistance=2.5, labelangle=45, headlabel="True"] ;
2 [label="guide <= 0.5\nentropy = 0.65\nsamples = 6\nvalue = [1, 5]"] ;
0 -> 2 [labeldistance=2.5, labelangle=-45, headlabel="False"] ;
3 [label="entropy = 1.0\nsamples = 2\nvalue = [1, 1]"] ;
2 -> 3 ;
4 [label="entropy = 0.0\nsamples = 4\nvalue = [0, 4]"] ;
2 -> 4 ;
}